{
  "input_nodes": 5,
  "hidden_nodes": 8,
  "output_nodes": 2,
  "weights_ih": {
    "rows": 8,
    "cols": 5,
    "data": [
      [
        0.4355278769321558,
        -0.4826868809327056,
        0.7902145541067207,
        0.21084695862298108,
        0.6232672632055649
      ],
      [
        0.7877899643291455,
        -0.7896561388189993,
        0.8004477250494255,
        0.8812103386239927,
        0.9262802592036222
      ],
      [
        -0.8241429046872835,
        -0.25221307463550957,
        -0.2539633445009982,
        0.011303553726688342,
        0.45679317383583706
      ],
      [
        -0.31849064287245143,
        -0.5481002735171061,
        -0.9703537401249092,
        -0.09296338444458918,
        0.24217293521011207
      ],
      [
        0.28881008743173453,
        0.4657758489144239,
        0.935730719469482,
        -0.41968560060520455,
        -0.06566529189263903
      ],
      [
        0.34243839212227856,
        -0.6945200415483863,
        -0.39836765330024004,
        -0.556175393209887,
        0.6300150504433888
      ],
      [
        -0.9866252151646759,
        0.08889659722093235,
        -0.20473648690037383,
        0.03876004588401738,
        -0.0846520475196173
      ],
      [
        -0.37752157594811653,
        0.3217793886698832,
        0.4505856400775422,
        -0.36252195287328703,
        0.5666530222250099
      ]
    ]
  },
  "weights_ho": {
    "rows": 2,
    "cols": 8,
    "data": [
      [
        0.6189837536609154,
        -0.14530506474065863,
        -0.8001259084466583,
        -0.146598553460906,
        -0.4944097510372183,
        -0.961442193583752,
        -0.9748932650007789,
        0.14612116425220867
      ],
      [
        0.6988800251493474,
        -0.361281609157738,
        -0.5352030510136454,
        0.2689673386712679,
        -0.9048871499306057,
        -0.5452107014723144,
        -0.2433780875475562,
        -0.7221134961598623
      ]
    ]
  },
  "bias_h": {
    "rows": 8,
    "cols": 1,
    "data": [
      [
        0.10489363795276141
      ],
      [
        0.04355458490150532
      ],
      [
        -0.03902686760108853
      ],
      [
        0.8977825757790181
      ],
      [
        0.4782388702625773
      ],
      [
        0.29146073253227733
      ],
      [
        0.3932899629549662
      ],
      [
        0.7468754728336178
      ]
    ]
  },
  "bias_o": {
    "rows": 2,
    "cols": 1,
    "data": [
      [
        -0.776472953744416
      ],
      [
        -0.6288860287543043
      ]
    ]
  },
  "learning_rate": 0.1,
  "activation_function": {}
}
